Language model created by QuickLM on Sat Jan  4 02:55:04 EST 2020
Copyright (c) 1996-2010 Carnegie Mellon University and Alexander I. Rudnicky

The model is in standard ARPA format, designed by Doug Paul while he was at MITRE.

The code that was used to produce this language model is available in Open Source.
Please visit http://www.speech.cs.cmu.edu/tools/ for more information

The (fixed) discount mass is 0.5. The backoffs are computed using the ratio method.
This model based on a corpus of 6 sentences and 13 words

\data\
ngram 1=13
ngram 2=17
ngram 3=11

\1-grams:
-0.8846 </s> -0.3010
-0.8846 <s> -0.2403
-1.6628 ASSISTANT -0.2403
-1.6628 BOOT -0.2915
-1.6628 COMMANDS -0.2403
-1.6628 HELP -0.2403
-1.6628 LIST -0.2915
-1.6628 LISTENING -0.2403
-1.6628 MIND -0.2403
-1.6628 OPEN -0.2915
-1.6628 STOP -0.2915
-1.6628 UP -0.2403
-1.6628 WARM -0.2915

\2-grams:
-1.0792 <s> BOOT 0.0000
-1.0792 <s> HELP 0.0000
-1.0792 <s> LIST 0.0000
-1.0792 <s> OPEN 0.0000
-1.0792 <s> STOP 0.0000
-1.0792 <s> WARM 0.0000
-0.3010 ASSISTANT </s> -0.3010
-0.3010 BOOT MIND 0.0000
-0.3010 COMMANDS </s> -0.3010
-0.3010 HELP </s> -0.3010
-0.3010 LIST COMMANDS 0.0000
-0.3010 LISTENING </s> -0.3010
-0.3010 MIND </s> -0.3010
-0.3010 OPEN ASSISTANT 0.0000
-0.3010 STOP LISTENING 0.0000
-0.3010 UP </s> -0.3010
-0.3010 WARM UP 0.0000

\3-grams:
-0.3010 <s> BOOT MIND
-0.3010 <s> HELP </s>
-0.3010 <s> LIST COMMANDS
-0.3010 <s> OPEN ASSISTANT
-0.3010 <s> STOP LISTENING
-0.3010 <s> WARM UP
-0.3010 BOOT MIND </s>
-0.3010 LIST COMMANDS </s>
-0.3010 OPEN ASSISTANT </s>
-0.3010 STOP LISTENING </s>
-0.3010 WARM UP </s>

\end\
