Language model created by QuickLM on Wed Aug  5 07:45:31 EDT 2020
Copyright (c) 1996-2010 Carnegie Mellon University and Alexander I. Rudnicky

The model is in standard ARPA format, designed by Doug Paul while he was at MITRE.

The code that was used to produce this language model is available in Open Source.
Please visit http://www.speech.cs.cmu.edu/tools/ for more information

The (fixed) discount mass is 0.5. The backoffs are computed using the ratio method.
This model based on a corpus of 12 sentences and 20 words

\data\
ngram 1=20
ngram 2=30
ngram 3=24

\1-grams:
-0.9208 </s> -0.3010
-0.9208 <s> -0.2304
-2.0000 ASSISTANT -0.2455
-2.0000 BOOT -0.2967
-2.0000 COMMANDS -0.2455
-2.0000 HELP -0.2455
-2.0000 HEY -0.2878
-1.5229 KALI -0.2405
-2.0000 LIST -0.2967
-2.0000 LISTENING -0.2455
-2.0000 MIND -0.2455
-1.3979 NO -0.2833
-2.0000 OPEN -0.2967
-1.5229 SPYING -0.2455
-2.0000 STOP -0.2967
-2.0000 SWIPER -0.2833
-2.0000 SWIPTER -0.2833
-1.6990 UP -0.2455
-2.0000 WAKE -0.2923
-2.0000 WARM -0.2923

\2-grams:
-1.3802 <s> BOOT 0.0000
-1.3802 <s> HELP 0.0000
-1.3802 <s> HEY 0.0000
-1.0792 <s> KALI 0.0000
-1.3802 <s> LIST 0.0000
-1.0792 <s> NO 0.0000
-1.3802 <s> OPEN 0.0000
-1.3802 <s> STOP 0.0000
-1.3802 <s> SWIPTER 0.0000
-1.3802 <s> WARM 0.0000
-0.3010 ASSISTANT </s> -0.3010
-0.3010 BOOT MIND 0.0000
-0.3010 COMMANDS </s> -0.3010
-0.3010 HELP </s> -0.3010
-0.3010 HEY KALI -0.1249
-0.4771 KALI </s> -0.3010
-0.7782 KALI WAKE 0.0000
-0.3010 LIST COMMANDS 0.0000
-0.3010 LISTENING </s> -0.3010
-0.3010 MIND </s> -0.3010
-0.4260 NO SPYING 0.0000
-0.9031 NO SWIPER 0.0000
-0.3010 OPEN ASSISTANT 0.0000
-0.3010 SPYING </s> -0.3010
-0.3010 STOP LISTENING 0.0000
-0.3010 SWIPER NO -0.0969
-0.3010 SWIPTER NO -0.0969
-0.3010 UP </s> -0.3010
-0.3010 WAKE UP 0.0000
-0.3010 WARM UP 0.0000

\3-grams:
-0.3010 <s> BOOT MIND
-0.3010 <s> HELP </s>
-0.3010 <s> HEY KALI
-0.6021 <s> KALI </s>
-0.6021 <s> KALI WAKE
-0.3010 <s> LIST COMMANDS
-0.6021 <s> NO SPYING
-0.6021 <s> NO SWIPER
-0.3010 <s> OPEN ASSISTANT
-0.3010 <s> STOP LISTENING
-0.3010 <s> SWIPTER NO
-0.3010 <s> WARM UP
-0.3010 BOOT MIND </s>
-0.3010 HEY KALI </s>
-0.3010 KALI WAKE UP
-0.3010 LIST COMMANDS </s>
-0.3010 NO SPYING </s>
-0.3010 NO SWIPER NO
-0.3010 OPEN ASSISTANT </s>
-0.3010 STOP LISTENING </s>
-0.3010 SWIPER NO SPYING
-0.3010 SWIPTER NO SPYING
-0.3010 WAKE UP </s>
-0.3010 WARM UP </s>

\end\
