Language model created by QuickLM on Sat Jan  4 03:09:00 EST 2020
Copyright (c) 1996-2010 Carnegie Mellon University and Alexander I. Rudnicky

The model is in standard ARPA format, designed by Doug Paul while he was at MITRE.

The code that was used to produce this language model is available in Open Source.
Please visit http://www.speech.cs.cmu.edu/tools/ for more information

The (fixed) discount mass is 0.5. The backoffs are computed using the ratio method.
This model based on a corpus of 40 sentences and 66 words

\data\
ngram 1=66
ngram 2=114
ngram 3=105

\1-grams:
-1.0719 </s> -0.3010
-1.0719 <s> -0.2595
-2.6739 A -0.3001
-2.6739 ALERT -0.2626
-2.6739 ASSISTANT -0.2626
-2.6739 BLUE -0.2626
-2.6739 BRIGHT -0.2626
-1.8958 BRIGHTNESS -0.2472
-2.6739 CAN -0.2992
-1.7709 CHANGE -0.2880
-2.6739 CLOSE -0.3001
-1.7709 COLOR -0.2870
-2.6739 COMMANDS -0.2626
-2.6739 COUNTDOWN -0.2626
-2.6739 DANCING -0.2964
-2.6739 DARK -0.3001
-2.6739 DAY -0.2983
-2.6739 DIAGNOSTICS -0.2626
-2.6739 DID -0.2992
-2.6739 DIM -0.2626
-2.1968 DIMMEST -0.2626
-2.6739 DOWN -0.2992
-2.6739 FIFTY -0.2626
-2.6739 FIVE -0.2626
-2.6739 FULL -0.2955
-2.6739 GREEN -0.2626
-2.6739 HERE -0.2626
-2.6739 HUNDRED -0.2626
-2.3729 I -0.2992
-2.6739 IN -0.3001
-2.1968 IS -0.2861
-2.3729 IT -0.2626
-2.1968 IT'S -0.2983
-1.5278 LIGHT -0.2735
-1.9750 LIGHTS -0.2626
-2.6739 LIME -0.2626
-2.6739 LIST -0.3001
-2.6739 MIND -0.2626
-2.6739 NEWS -0.2626
-2.3729 OFF -0.2880
-2.3729 ON -0.2880
-2.3729 ONE -0.2616
-2.6739 PINK -0.2626
-2.3729 PLUG2 -0.2626
-2.3729 POWER -0.2992
-2.6739 PURPLE -0.2626
-2.6739 READ -0.3001
-2.3729 RED -0.2616
-2.6739 ROOT -0.3001
-2.6739 RUN -0.3001
-2.3729 SAY -0.2626
-1.7709 SET -0.2705
-2.6739 SING -0.3001
-2.6739 SONG -0.2626
-2.6739 TEN -0.2626
-1.5278 THE -0.2793
-2.6739 TIME -0.2983
-1.4979 TO -0.2715
-2.1968 TOO -0.2983
-2.3729 TURN -0.2973
-2.6739 UP -0.2992
-2.6739 WEATHER -0.2626
-1.9750 WHAT -0.2945
-2.6739 WHITE -0.2626
-2.6739 WORLD -0.3001
-2.6739 YELLOW -0.2626

\2-grams:
-1.0000 <s> CHANGE 0.0000
-1.9031 <s> CLOSE 0.0000
-1.9031 <s> COUNTDOWN 0.0000
-1.9031 <s> DANCING 0.0000
-1.9031 <s> FULL 0.0000
-1.4260 <s> IT'S 0.0000
-1.9031 <s> LIST 0.0000
-1.9031 <s> OFF 0.0000
-1.9031 <s> ON 0.0000
-1.6021 <s> POWER 0.0000
-1.9031 <s> READ 0.0000
-1.9031 <s> RED -0.1761
-1.9031 <s> ROOT 0.0000
-1.9031 <s> RUN 0.0000
-1.0000 <s> SET 0.0000
-1.9031 <s> SING 0.0000
-1.6021 <s> TURN 0.0000
-1.2041 <s> WHAT 0.0000
-0.3010 A SONG 0.0000
-0.3010 ALERT </s> -0.3010
-0.3010 ASSISTANT </s> -0.3010
-0.3010 BLUE </s> -0.3010
-0.3010 BRIGHT </s> -0.3010
-1.0792 BRIGHTNESS </s> -0.3010
-0.3802 BRIGHTNESS TO -0.2218
-0.3010 CAN I 0.0000
-0.3010 CHANGE THE -0.1549
-0.3010 CLOSE ASSISTANT 0.0000
-0.3010 COLOR TO -0.1663
-0.3010 COMMANDS </s> -0.3010
-0.3010 COUNTDOWN </s> -0.3010
-0.3010 DANCING LIGHTS 0.0000
-0.3010 DARK IN 0.0000
-0.3010 DAY IS -0.1249
-0.3010 DIAGNOSTICS </s> -0.3010
-0.3010 DID I 0.0000
-0.3010 DIM </s> -0.3010
-0.3010 DIMMEST </s> -0.3010
-0.3010 DOWN PLUG2 0.0000
-0.3010 FIFTY </s> -0.3010
-0.3010 FIVE </s> -0.3010
-0.3010 FULL BRIGHTNESS -0.2632
-0.3010 GREEN </s> -0.3010
-0.3010 HERE </s> -0.3010
-0.3010 HUNDRED </s> -0.3010
-0.3010 I SAY 0.0000
-0.3010 IN HERE 0.0000
-0.4771 IS IT 0.0000
-0.7782 IS THE -0.2852
-0.3010 IT </s> -0.3010
-0.3010 IT'S TOO 0.0000
-0.7482 LIGHT BRIGHTNESS -0.0669
-0.5441 LIGHT COLOR 0.0000
-1.4472 LIGHT TO -0.2863
-0.3010 LIGHTS </s> -0.3010
-0.3010 LIME </s> -0.3010
-0.3010 LIST COMMANDS 0.0000
-0.3010 MIND </s> -0.3010
-0.3010 NEWS </s> -0.3010
-0.3010 OFF THE -0.2341
-0.3010 ON THE -0.2341
-0.6021 ONE </s> -0.3010
-0.6021 ONE HUNDRED 0.0000
-0.3010 PINK </s> -0.3010
-0.3010 PLUG2 </s> -0.3010
-0.6021 POWER DOWN 0.0000
-0.6021 POWER UP 0.0000
-0.3010 PURPLE </s> -0.3010
-0.3010 READ WORLD 0.0000
-0.6021 RED </s> -0.3010
-0.6021 RED ALERT 0.0000
-0.3010 ROOT MIND 0.0000
-0.3010 RUN DIAGNOSTICS 0.0000
-0.3010 SAY </s> -0.3010
-1.2041 SET DIMMEST 0.0000
-0.4260 SET LIGHT -0.1963
-1.2041 SET TO -0.2863
-0.3010 SING A 0.0000
-0.3010 SONG </s> -0.3010
-0.3010 TEN </s> -0.3010
-1.4472 THE DIMMEST 0.0000
-0.5441 THE LIGHT -0.1549
-0.8451 THE LIGHTS 0.0000
-1.4472 THE WEATHER 0.0000
-0.3010 TIME IS -0.1249
-1.4771 TO BLUE 0.0000
-1.4771 TO DIMMEST 0.0000
-1.4771 TO FIFTY 0.0000
-1.4771 TO FIVE 0.0000
-1.4771 TO GREEN 0.0000
-1.4771 TO LIME 0.0000
-1.1761 TO ONE 0.0000
-1.4771 TO PINK 0.0000
-1.4771 TO PURPLE 0.0000
-1.4771 TO RED -0.1761
-1.4771 TO TEN 0.0000
-1.4771 TO THE -0.2852
-1.4771 TO WHITE 0.0000
-1.4771 TO YELLOW 0.0000
-0.7782 TOO BRIGHT 0.0000
-0.7782 TOO DARK 0.0000
-0.7782 TOO DIM 0.0000
-0.6021 TURN OFF 0.0000
-0.6021 TURN ON 0.0000
-0.3010 UP PLUG2 0.0000
-0.3010 WEATHER </s> -0.3010
-1.0000 WHAT CAN 0.0000
-1.0000 WHAT DAY 0.0000
-1.0000 WHAT DID 0.0000
-1.0000 WHAT IS -0.2218
-1.0000 WHAT TIME 0.0000
-0.3010 WHITE </s> -0.3010
-0.3010 WORLD NEWS 0.0000
-0.3010 YELLOW </s> -0.3010

\3-grams:
-0.3010 <s> CHANGE THE
-0.3010 <s> CLOSE ASSISTANT
-0.3010 <s> COUNTDOWN </s>
-0.3010 <s> DANCING LIGHTS
-0.3010 <s> FULL BRIGHTNESS
-0.3010 <s> IT'S TOO
-0.3010 <s> LIST COMMANDS
-0.3010 <s> OFF THE
-0.3010 <s> ON THE
-0.6021 <s> POWER DOWN
-0.6021 <s> POWER UP
-0.3010 <s> READ WORLD
-0.3010 <s> RED ALERT
-0.3010 <s> ROOT MIND
-0.3010 <s> RUN DIAGNOSTICS
-1.2041 <s> SET DIMMEST
-0.4260 <s> SET LIGHT
-1.2041 <s> SET TO
-0.3010 <s> SING A
-0.6021 <s> TURN OFF
-0.6021 <s> TURN ON
-1.0000 <s> WHAT CAN
-1.0000 <s> WHAT DAY
-1.0000 <s> WHAT DID
-1.0000 <s> WHAT IS
-1.0000 <s> WHAT TIME
-0.3010 A SONG </s>
-1.0000 BRIGHTNESS TO FIFTY
-1.0000 BRIGHTNESS TO FIVE
-0.6990 BRIGHTNESS TO ONE
-1.0000 BRIGHTNESS TO TEN
-0.3010 CAN I SAY
-0.3010 CHANGE THE LIGHT
-0.3010 CLOSE ASSISTANT </s>
-1.2041 COLOR TO BLUE
-1.2041 COLOR TO GREEN
-1.2041 COLOR TO LIME
-1.2041 COLOR TO PINK
-1.2041 COLOR TO PURPLE
-1.2041 COLOR TO RED
-1.2041 COLOR TO WHITE
-1.2041 COLOR TO YELLOW
-0.3010 DANCING LIGHTS </s>
-0.3010 DARK IN HERE
-0.3010 DAY IS IT
-0.3010 DID I SAY
-0.3010 DOWN PLUG2 </s>
-0.3010 FULL BRIGHTNESS </s>
-0.3010 I SAY </s>
-0.3010 IN HERE </s>
-0.3010 IS IT </s>
-0.3010 IS THE WEATHER
-0.7782 IT'S TOO BRIGHT
-0.7782 IT'S TOO DARK
-0.7782 IT'S TOO DIM
-0.3010 LIGHT BRIGHTNESS TO
-0.3010 LIGHT COLOR TO
-0.3010 LIGHT TO DIMMEST
-0.3010 LIST COMMANDS </s>
-0.3010 OFF THE LIGHTS
-0.3010 ON THE LIGHTS
-0.3010 ONE HUNDRED </s>
-0.3010 POWER DOWN PLUG2
-0.3010 POWER UP PLUG2
-0.3010 READ WORLD NEWS
-0.3010 RED ALERT </s>
-0.3010 ROOT MIND </s>
-0.3010 RUN DIAGNOSTICS </s>
-0.3010 SET DIMMEST </s>
-0.3802 SET LIGHT BRIGHTNESS
-1.0792 SET LIGHT TO
-0.3010 SET TO THE
-0.3010 SING A SONG
-0.3010 THE DIMMEST </s>
-0.3010 THE LIGHT COLOR
-0.3010 THE LIGHTS </s>
-0.3010 THE WEATHER </s>
-0.3010 TIME IS IT
-0.3010 TO BLUE </s>
-0.3010 TO DIMMEST </s>
-0.3010 TO FIFTY </s>
-0.3010 TO FIVE </s>
-0.3010 TO GREEN </s>
-0.3010 TO LIME </s>
-0.6021 TO ONE </s>
-0.6021 TO ONE HUNDRED
-0.3010 TO PINK </s>
-0.3010 TO PURPLE </s>
-0.3010 TO RED </s>
-0.3010 TO TEN </s>
-0.3010 TO THE DIMMEST
-0.3010 TO WHITE </s>
-0.3010 TO YELLOW </s>
-0.3010 TOO BRIGHT </s>
-0.3010 TOO DARK IN
-0.3010 TOO DIM </s>
-0.3010 TURN OFF THE
-0.3010 TURN ON THE
-0.3010 UP PLUG2 </s>
-0.3010 WHAT CAN I
-0.3010 WHAT DAY IS
-0.3010 WHAT DID I
-0.3010 WHAT IS THE
-0.3010 WHAT TIME IS
-0.3010 WORLD NEWS </s>

\end\
