Language model created by QuickLM on Wed Aug  5 09:25:38 EDT 2020
Copyright (c) 1996-2010 Carnegie Mellon University and Alexander I. Rudnicky

The model is in standard ARPA format, designed by Doug Paul while he was at MITRE.

The code that was used to produce this language model is available in Open Source.
Please visit http://www.speech.cs.cmu.edu/tools/ for more information

The (fixed) discount mass is 0.5. The backoffs are computed using the ratio method.
This model based on a corpus of 62 sentences and 90 words

\data\
ngram 1=90
ngram 2=170
ngram 3=153

\1-grams:
-0.9944 </s> -0.3010
-0.9944 <s> -0.2369
-2.7868 A -0.3003
-2.4857 AN -0.2546
-2.7868 ASSISTANT -0.2546
-2.7868 AUS -0.2546
-2.7868 BRIGHT -0.2546
-2.0086 BRIGHTNESS -0.2475
-2.7868 CAN -0.2996
-2.7868 CLOSE -0.3003
-2.7868 COMMAND -0.2546
-2.7868 COMMANDS -0.2546
-2.7868 DANCING -0.2968
-2.7868 DARK -0.2996
-2.7868 DAS -0.2996
-2.7868 DAY -0.2989
-2.7868 DIAGNOSTICS -0.2546
-2.7868 DID -0.2996
-1.9417 DIM -0.2418
-2.3096 DIMMEST -0.2546
-2.7868 DOWN -0.2546
-2.3096 FIFTY -0.2546
-2.7868 FIVE -0.2546
-2.4857 FULL -0.2499
-2.7868 GESAGT -0.2546
-2.7868 GO -0.2946
-2.7868 HAB -0.3003
-2.4857 HALF -0.2546
-2.7868 HERE -0.2546
-2.7868 HUNDRED -0.2546
-2.4857 I -0.2996
-2.7868 ICH -0.3003
-2.4857 IN -0.2953
-2.3096 IS -0.2946
-2.7868 IST -0.3003
-2.4857 IT -0.2546
-2.3096 IT'S -0.2989
-2.7868 KALI -0.2996
-2.7868 LAST -0.3003
-2.7868 LETZTER -0.3003
-2.3096 LICHT -0.2989
-1.9417 LIGHT -0.2888
-2.0086 LIGHTS -0.2459
-2.7868 LIST -0.3003
-2.4857 LISTENING -0.2546
-2.4857 LIVING -0.2996
-2.0878 LUMOS -0.2507
-2.7868 MAXIMA -0.2546
-2.7868 ME -0.2960
-2.7868 MIND -0.2546
-2.7868 NACHRICHTEN -0.2546
-2.4857 NEWS -0.2546
-2.0878 NO -0.2960
-2.4857 OFF -0.2960
-2.4857 ON -0.2491
-2.4857 ONE -0.2539
-2.7868 READ -0.2996
-2.4857 ROOM -0.2968
-2.7868 ROOT -0.3003
-2.7868 RUN -0.3003
-2.7868 SATZ -0.2546
-2.4857 SAY -0.2546
-2.7868 SCHLAFZIMME -0.2546
-2.7868 SCHLAFZIMMER -0.2546
-1.8837 SET -0.2873
-2.7868 SING -0.3003
-2.7868 SLEEP -0.2546
-2.7868 SONG -0.2546
-2.3096 SPYING -0.2546
-2.4857 STOP -0.2996
-2.3096 SWIPER -0.2975
-2.7868 SWIPING -0.2546
-2.7868 TELL -0.3003
-2.7868 TEN -0.2546
-1.9417 THE -0.2895
-2.4857 TIME -0.2523
-1.8325 TO -0.2881
-2.3096 TOO -0.2946
-2.4857 TURN -0.2982
-2.7868 UHRZEIT -0.2546
-2.4857 UP -0.2531
-2.7868 WAS -0.3003
-2.3096 WEATHER -0.2546
-2.4857 WETTER -0.2546
-2.0878 WHAT -0.2953
-2.7868 WHATS -0.2996
-2.7868 WIE -0.3003
-2.4857 WOHNZIMMER -0.2523
-2.4857 WORLD -0.2531
-2.7868 ZULETZT -0.3003

\2-grams:
-2.0934 <s> CLOSE 0.0000
-2.0934 <s> DANCING 0.0000
-1.3153 <s> DIM -0.0580
-2.0934 <s> FULL -0.1761
-2.0934 <s> GO 0.0000
-1.6163 <s> IT'S 0.0000
-2.0934 <s> KALI 0.0000
-2.0934 <s> LAST 0.0000
-2.0934 <s> LETZTER 0.0000
-1.7924 <s> LICHT 0.0000
-2.0934 <s> LIGHT -0.2688
-2.0934 <s> LIST 0.0000
-2.0934 <s> LIVING 0.0000
-1.3945 <s> LUMOS 0.0000
-2.0934 <s> NACHRICHTEN 0.0000
-2.0934 <s> NEWS 0.0000
-1.7924 <s> NO -0.0792
-2.0934 <s> OFF 0.0000
-2.0934 <s> READ 0.0000
-2.0934 <s> ROOT 0.0000
-2.0934 <s> RUN 0.0000
-1.1903 <s> SET 0.0000
-2.0934 <s> SING 0.0000
-2.0934 <s> STOP 0.0000
-1.7924 <s> SWIPER 0.0000
-2.0934 <s> TELL 0.0000
-2.0934 <s> TIME -0.1761
-1.7924 <s> TURN 0.0000
-2.0934 <s> UHRZEIT 0.0000
-2.0934 <s> WAS 0.0000
-2.0934 <s> WEATHER 0.0000
-2.0934 <s> WETTER 0.0000
-1.3945 <s> WHAT 0.0000
-2.0934 <s> WHATS 0.0000
-2.0934 <s> WIE 0.0000
-2.0934 <s> WOHNZIMMER -0.1761
-0.3010 A SONG 0.0000
-0.3010 AN </s> -0.3010
-0.3010 ASSISTANT </s> -0.3010
-0.3010 AUS </s> -0.3010
-0.3010 BRIGHT </s> -0.3010
-1.0792 BRIGHTNESS </s> -0.3010
-0.3802 BRIGHTNESS TO -0.1249
-0.3010 CAN I 0.0000
-0.3010 CLOSE ASSISTANT 0.0000
-0.3010 COMMAND </s> -0.3010
-0.3010 COMMANDS </s> -0.3010
-0.3010 DANCING LIGHTS -0.1249
-0.3010 DARK IN -0.1761
-0.3010 DAS WETTER 0.0000
-0.3010 DAY IS -0.1249
-0.3010 DIAGNOSTICS </s> -0.3010
-0.3010 DID I 0.0000
-1.1461 DIM </s> -0.3010
-1.1461 DIM DOWN 0.0000
-1.1461 DIM FIFTY 0.0000
-1.1461 DIM FULL -0.1761
-1.1461 DIM HALF 0.0000
-1.1461 DIM LIGHTS -0.2632
-1.1461 DIM UP -0.1761
-0.3010 DIMMEST </s> -0.3010
-0.3010 DOWN </s> -0.3010
-0.3010 FIFTY </s> -0.3010
-0.3010 FIVE </s> -0.3010
-0.6021 FULL </s> -0.3010
-0.6021 FULL BRIGHTNESS -0.2632
-0.3010 GESAGT </s> -0.3010
-0.3010 GO TO -0.2762
-0.3010 HAB ICH 0.0000
-0.3010 HALF </s> -0.3010
-0.3010 HERE </s> -0.3010
-0.3010 HUNDRED </s> -0.3010
-0.3010 I SAY 0.0000
-0.3010 ICH ZULETZT 0.0000
-0.6021 IN HERE 0.0000
-0.6021 IN THE -0.2688
-0.4771 IS IT 0.0000
-0.7782 IS THE -0.2341
-0.3010 IST DAS 0.0000
-0.3010 IT </s> -0.3010
-0.3010 IT'S TOO 0.0000
-0.3010 KALI STOP 0.0000
-0.3010 LAST COMMAND 0.0000
-0.3010 LETZTER SATZ 0.0000
-0.4771 LICHT AN 0.0000
-0.7782 LICHT AUS 0.0000
-0.4472 LIGHT BRIGHTNESS -0.0669
-1.1461 LIGHT HALF 0.0000
-1.1461 LIGHT TO -0.2762
-0.4771 LIGHTS </s> -0.3010
-1.0792 LIGHTS ON -0.1761
-1.0792 LIGHTS TO -0.2499
-0.3010 LIST COMMANDS 0.0000
-0.3010 LISTENING </s> -0.3010
-0.3010 LIVING ROOM 0.0000
-1.0000 LUMOS </s> -0.3010
-1.0000 LUMOS MAXIMA 0.0000
-1.0000 LUMOS SCHLAFZIMME 0.0000
-1.0000 LUMOS SCHLAFZIMMER 0.0000
-1.0000 LUMOS WOHNZIMMER -0.1761
-0.3010 MAXIMA </s> -0.3010
-0.3010 ME THE -0.2341
-0.3010 MIND </s> -0.3010
-0.3010 NACHRICHTEN </s> -0.3010
-0.3010 NEWS </s> -0.3010
-0.5229 NO SPYING 0.0000
-1.0000 NO SWIPER 0.0000
-1.0000 NO SWIPING 0.0000
-0.3010 OFF THE -0.2341
-0.6021 ON </s> -0.3010
-0.6021 ON THE -0.2688
-0.6021 ONE </s> -0.3010
-0.6021 ONE HUNDRED 0.0000
-0.3010 READ WORLD -0.1761
-0.3010 ROOM LIGHTS -0.0669
-0.3010 ROOT MIND 0.0000
-0.3010 RUN DIAGNOSTICS 0.0000
-0.3010 SATZ </s> -0.3010
-0.3010 SAY </s> -0.3010
-0.3010 SCHLAFZIMME </s> -0.3010
-0.3010 SCHLAFZIMMER </s> -0.3010
-1.2041 SET DIMMEST 0.0000
-0.4260 SET LIGHT -0.0580
-1.2041 SET TO -0.2762
-0.3010 SING A 0.0000
-0.3010 SLEEP </s> -0.3010
-0.3010 SONG </s> -0.3010
-0.3010 SPYING </s> -0.3010
-0.3010 STOP LISTENING 0.0000
-0.3010 SWIPER NO -0.0792
-0.3010 SWIPING </s> -0.3010
-0.3010 TELL ME 0.0000
-0.3010 TEN </s> -0.3010
-1.1461 THE DIMMEST 0.0000
-0.8451 THE LIGHTS -0.1249
-1.1461 THE LIVING 0.0000
-0.8451 THE WEATHER 0.0000
-1.1461 THE WORLD -0.1761
-0.6021 TIME </s> -0.3010
-0.6021 TIME IS -0.1249
-1.2553 TO DIMMEST 0.0000
-0.9542 TO FIFTY 0.0000
-1.2553 TO FIVE 0.0000
-0.9542 TO ONE 0.0000
-1.2553 TO SLEEP 0.0000
-1.2553 TO TEN 0.0000
-1.2553 TO THE -0.2688
-0.7782 TOO BRIGHT 0.0000
-0.7782 TOO DARK 0.0000
-0.7782 TOO DIM -0.2688
-0.6021 TURN OFF 0.0000
-0.6021 TURN ON -0.1761
-0.3010 UHRZEIT </s> -0.3010
-0.6021 UP </s> -0.3010
-0.6021 UP IN -0.1761
-0.3010 WAS HAB 0.0000
-0.3010 WEATHER </s> -0.3010
-0.3010 WETTER </s> -0.3010
-1.0000 WHAT CAN 0.0000
-1.0000 WHAT DAY 0.0000
-1.0000 WHAT DID 0.0000
-1.0000 WHAT IS -0.2218
-1.0000 WHAT TIME -0.1761
-0.3010 WHATS UP -0.1761
-0.3010 WIE IST 0.0000
-0.6021 WOHNZIMMER </s> -0.3010
-0.6021 WOHNZIMMER LICHT -0.1249
-0.6021 WORLD </s> -0.3010
-0.6021 WORLD NEWS 0.0000
-0.3010 ZULETZT GESAGT 0.0000

\3-grams:
-0.3010 <s> CLOSE ASSISTANT
-0.3010 <s> DANCING LIGHTS
-1.0792 <s> DIM DOWN
-1.0792 <s> DIM FIFTY
-1.0792 <s> DIM FULL
-1.0792 <s> DIM HALF
-1.0792 <s> DIM LIGHTS
-1.0792 <s> DIM UP
-0.3010 <s> FULL BRIGHTNESS
-0.3010 <s> GO TO
-0.3010 <s> IT'S TOO
-0.3010 <s> KALI STOP
-0.3010 <s> LAST COMMAND
-0.3010 <s> LETZTER SATZ
-0.6021 <s> LICHT AN
-0.6021 <s> LICHT AUS
-0.3010 <s> LIGHT HALF
-0.3010 <s> LIST COMMANDS
-0.3010 <s> LIVING ROOM
-1.0000 <s> LUMOS </s>
-1.0000 <s> LUMOS MAXIMA
-1.0000 <s> LUMOS SCHLAFZIMME
-1.0000 <s> LUMOS SCHLAFZIMMER
-1.0000 <s> LUMOS WOHNZIMMER
-0.3010 <s> NACHRICHTEN </s>
-0.3010 <s> NEWS </s>
-0.6021 <s> NO SPYING
-0.6021 <s> NO SWIPER
-0.3010 <s> OFF THE
-0.3010 <s> READ WORLD
-0.3010 <s> ROOT MIND
-0.3010 <s> RUN DIAGNOSTICS
-1.2041 <s> SET DIMMEST
-0.4260 <s> SET LIGHT
-1.2041 <s> SET TO
-0.3010 <s> SING A
-0.3010 <s> STOP LISTENING
-0.3010 <s> SWIPER NO
-0.3010 <s> TELL ME
-0.3010 <s> TIME </s>
-0.6021 <s> TURN OFF
-0.6021 <s> TURN ON
-0.3010 <s> UHRZEIT </s>
-0.3010 <s> WAS HAB
-0.3010 <s> WEATHER </s>
-0.3010 <s> WETTER </s>
-1.0000 <s> WHAT CAN
-1.0000 <s> WHAT DAY
-1.0000 <s> WHAT DID
-1.0000 <s> WHAT IS
-1.0000 <s> WHAT TIME
-0.3010 <s> WHATS UP
-0.3010 <s> WIE IST
-0.3010 <s> WOHNZIMMER LICHT
-0.3010 A SONG </s>
-1.0000 BRIGHTNESS TO FIFTY
-1.0000 BRIGHTNESS TO FIVE
-0.6990 BRIGHTNESS TO ONE
-1.0000 BRIGHTNESS TO TEN
-0.3010 CAN I SAY
-0.3010 CLOSE ASSISTANT </s>
-0.3010 DANCING LIGHTS </s>
-0.3010 DARK IN HERE
-0.3010 DAS WETTER </s>
-0.3010 DAY IS IT
-0.3010 DID I SAY
-0.3010 DIM DOWN </s>
-0.3010 DIM FIFTY </s>
-0.3010 DIM FULL </s>
-0.3010 DIM HALF </s>
-0.3010 DIM LIGHTS TO
-0.3010 DIM UP </s>
-0.3010 FULL BRIGHTNESS </s>
-0.3010 GO TO SLEEP
-0.3010 HAB ICH ZULETZT
-0.3010 I SAY </s>
-0.3010 ICH ZULETZT GESAGT
-0.3010 IN HERE </s>
-0.3010 IN THE WORLD
-0.3010 IS IT </s>
-0.3010 IS THE WEATHER
-0.3010 IST DAS WETTER
-0.7782 IT'S TOO BRIGHT
-0.7782 IT'S TOO DARK
-0.7782 IT'S TOO DIM
-0.3010 KALI STOP LISTENING
-0.3010 LAST COMMAND </s>
-0.3010 LETZTER SATZ </s>
-0.3010 LICHT AN </s>
-0.3010 LICHT AUS </s>
-0.3010 LIGHT BRIGHTNESS TO
-0.3010 LIGHT HALF </s>
-0.3010 LIGHT TO DIMMEST
-0.3010 LIGHTS ON </s>
-0.3010 LIGHTS TO FIFTY
-0.3010 LIST COMMANDS </s>
-0.3010 LIVING ROOM LIGHTS
-0.3010 LUMOS MAXIMA </s>
-0.3010 LUMOS SCHLAFZIMME </s>
-0.3010 LUMOS SCHLAFZIMMER </s>
-0.3010 LUMOS WOHNZIMMER </s>
-0.3010 ME THE WEATHER
-0.3010 NO SPYING </s>
-0.3010 NO SWIPER NO
-0.3010 NO SWIPING </s>
-0.3010 OFF THE LIGHTS
-0.3010 ON THE LIVING
-0.3010 ONE HUNDRED </s>
-0.3010 READ WORLD NEWS
-0.6021 ROOM LIGHTS </s>
-0.6021 ROOM LIGHTS ON
-0.3010 ROOT MIND </s>
-0.3010 RUN DIAGNOSTICS </s>
-0.3010 SET DIMMEST </s>
-0.3802 SET LIGHT BRIGHTNESS
-1.0792 SET LIGHT TO
-0.3010 SET TO THE
-0.3010 SING A SONG
-0.3010 STOP LISTENING </s>
-0.4771 SWIPER NO SPYING
-0.7782 SWIPER NO SWIPING
-0.3010 TELL ME THE
-0.3010 THE DIMMEST </s>
-0.3010 THE LIGHTS </s>
-0.3010 THE LIVING ROOM
-0.3010 THE WEATHER </s>
-0.3010 THE WORLD </s>
-0.3010 TIME IS IT
-0.3010 TO DIMMEST </s>
-0.3010 TO FIFTY </s>
-0.3010 TO FIVE </s>
-0.6021 TO ONE </s>
-0.6021 TO ONE HUNDRED
-0.3010 TO SLEEP </s>
-0.3010 TO TEN </s>
-0.3010 TO THE DIMMEST
-0.3010 TOO BRIGHT </s>
-0.3010 TOO DARK IN
-0.3010 TOO DIM </s>
-0.3010 TURN OFF THE
-0.3010 TURN ON THE
-0.3010 UP IN THE
-0.3010 WAS HAB ICH
-0.3010 WHAT CAN I
-0.3010 WHAT DAY IS
-0.3010 WHAT DID I
-0.3010 WHAT IS THE
-0.3010 WHAT TIME IS
-0.3010 WHATS UP IN
-0.3010 WIE IST DAS
-0.3010 WOHNZIMMER LICHT AN
-0.3010 WORLD NEWS </s>
-0.3010 ZULETZT GESAGT </s>

\end\
